697.39791 -56.82987 -56.40081 186.13043 990.09015 349.26910 -901.21792 -156.42360 -730.21596 64.69911 -475.63197 -365.48982 333.99218 120.36358 342.20160 750.39739 -538.28944 376.85738 -181.91865 434.14532
195.78869 212.14764 229.49234 -393.06014 -734.68734 763.61479 -782.18821 -854.53894 -717.31158 -452.34217 369.81459 437.15486 -143.51667 -692.29913 -594.85925 695.28742 368.88367 930.85682 521.26947 555.53793
-864.13167 924.82069 930.15768 -832.99778 948.68615 -550.12349 -114.39402 -238.12982 -740.73715 -249.74486 -10.99700 -26.42694 643.65096 569.87390 206.28107 -410.13000 -245.31753 -666.95547 822.89592 365.67078
-379.22000 615.51623 -373.64153 -727.94420 727.55258 365.89725 282.06464 -563.97957 -482.14607 754.62069 583.44504 -114.38188 19.22112 124.70233 -394.83708 839.01910 -613.93748 -914.12239 -20.68441 -467.68875
-694.55025 440.29113 -53.54288 -922.83111 -570.92398 -378.75332 -175.35423 473.09318 -281.32139 -170.33230 605.94868 81.14819 366.37209 932.91279 717.13889 -218.65075 -76.73960 209.28205 -529.51841 -331.22874
-371.68497 152.59995 475.75056 -529.70455 -753.21087 234.24309 247.72981 -110.14618 -70.43276 -574.91465 -941.82914 442.90722 -122.53599 -642.25557 -784.39396 -991.55683 987.33566 276.78617 109.15060 -542.59131
977.35603 -964.49738 664.67242 771.82846 355.18279 -935.37252 -957.38062 14.96209 -549.11047 160.93234 -899.17907 174.70743 49.21058 43.49961 378.77254 -895.49126 640.77078 -987.49378 85.23020 -277.81729
-630.38469 -528.88076 -346.63290 -662.07689 139.31201 786.90228 -450.09751 -137.31771 177.12420 727.04223 185.29459 -530.34795 -125.58013 331.01105 374.15038 735.72251 607.80781 -819.87547 479.26698 -825.09143
-801.46201 636.85271 -168.26781 80.02405 54.62704 187.43243 676.50313 217.19834 941.01398 -480.40172 819.77447 -585.49914 -340.52097 799.41548 -861.80886 418.49810 389.75765 -728.39924 -595.84913 -948.37926
237.19684 -492.47579 466.57572 -919.61028 -445.11224 -81.55007 689.30457 863.64538 405.64096 -208.95237 43.52100 -991.70068 250.11424 -303.28704 46.29457 -271.82400 -893.51634 -756.35450 -116.91243 -785.17131
432.27598 -743.79717 -939.85616 -79.62148 -615.20999 -614.70068 19.93287 500.27810 -982.97566 -506.37436 593.49679 68.41695 909.40802 164.05604 116.33061 216.38072 -420.44917 264.23512 749.47076 -510.83487
-531.20759 -662.11720 334.20867 411.60851 -565.49664 770.62854 884.41471 446.29089 -700.63700 -791.65184 -186.97397 -3.95607 504.89374 -66.79469 962.14898 960.94238 458.76020 511.55150 808.86665 588.38318
974.67871 712.83196 -328.02523 352.65282 218.44778 986.74697 498.30099 -657.06029 54.89756 -669.31879 -484.43200 -328.61275 804.41378 -672.64447 -961.13973 425.24018 -899.45871 -337.31701 858.24721 211.60129
-414.35498 672.65297 -152.20614 -224.53441 24.38678 993.45973 -433.57391 -0.85812 -454.58473 -258.42014 -927.70622 469.95924 297.48752 482.68978 -303.80743 -450.03924 -737.08958 106.00303 633.07631 -402.34111
-330.21169 -820.39569 -389.30582 901.26530 -765.40932 -954.30281 -775.49028 -726.62491 693.78970 -325.68796 -208.03692 -729.63212 456.29191 -61.56567 -441.61736 599.35736 438.05914 705.70247 -692.64072 -226.92546
496.61827 291.65422 -846.49133 -705.72124 794.42187 179.80155 -859.60069 711.93275 789.07041 -618.02267 -70.42083 -892.31246 172.67631 -456.54515 -643.63170 -535.23366 487.70253 -58.12597 -315.62792 -363.40487
404.30253 293.78421 -569.50471 215.48725 -63.85258 376.31473 713.78060 -29.06818 839.81760 247.83254 575.02025 -724.81478 -83.00480 184.75932 -805.33434 932.21342 931.21960 -381.93695 624.51731 796.77973
305.03954 283.42316 -371.29561 -573.30376 801.29373 414.34011 -568.58983 366.82610 -407.76638 404.37635 454.79256 264.23112 835.37577 -26.68542 -209.97502 121.46082 587.70803 240.80082 -783.86967 -796.79450
-821.23420 -934.44728 688.35325 -608.40323 111.46555 188.46277 -968.63483 706.64603 -66.82094 760.50646 765.09630 338.52140 601.45724 301.75847 -710.59792 -68.22229 -826.56329 -350.80118 -429.38398 281.59231
610.47581 -449.50696 -301.22380 696.61564 -719.95577 792.03585 812.84980 -332.99819 -650.04240 -185.96981 -922.87127 -502.20110 -701.75217 991.66725 -144.40353 484.80253 -979.01420 972.68111 111.00279 -330.88990
392.84191 74.76292 439.88741 794.58686 -163.52672 507.05559 -318.71391 44.99103 -858.44594 222.99982 -736.46124 17.63421 -778.01901 -646.90645 -322.43910 549.59148 -156.60859 581.72951 77.53185 -29.92362
736.03801 -513.62858 559.89245 -509.08690 -882.53451 -491.43805 -153.64811 -955.26262 -811.00143 329.80841 -323.41101 -209.82323 -491.73583 -189.82094 -1.21824 516.41008 -797.24559 105.11931 404.25185 863.76090
716.56073 -618.88599 -418.33076 -806.38209 908.85083 -40.11975 -17.16138 -103.61637 984.95887 -229.57327 -923.13443 281.02440 176.66703 246.00331 -611.39089 -815.32777 778.71389 341.98388 471.40788 279.82109
154.95838 598.73795 -646.53124 -63.21297 -343.49607 558.39178 528.19569 767.69063 -932.16797 965.44697 550.65947 -715.84771 -418.81951 -195.35469 618.06819 -488.58835 446.47031 679.96387 -639.08356 628.74846
564.93144 586.49130 416.51314 592.46772 -306.86923 523.55655 508.53070 -674.68615 443.74497 970.93855 -7.50703 521.60579 955.88428 985.73656 -700.67665 -989.16844 295.49158 -587.19717 -353.03813 -156.87107
-948.09431 386.60213 82.16196 450.11771 -629.72758 -366.67924 868.83558 856.10493 -385.09862 -537.22415 -748.89723 -119.50674 594.79919 -391.77133 -478.29562 -827.30315 35.66976 696.10627 -503.32372 107.30319
11.12013 356.59281 899.82578 -884.93435 150.41004 -0.94417 -256.24306 95.96316 159.99515 -324.36912 452.23844 -37.33240 45.37970 -73.49145 389.05770 287.30974 166.62180 794.02228 571.54005 943.79612
-430.05765 588.48416 -568.55185 -489.97432 759.90929 831.78503 365.23644 439.35275 -131.73974 57.77295 592.60038 -936.59991 -392.40585 880.46830 -811.21954 -602.31045 495.74723 -243.44637 -634.91942 80.88917
388.70503 -457.89445 -76.62904 -353.79305 699.21446 -184.93440 -579.16271 -897.79799 938.32821 -280.70267 -426.96692 -171.75829 630.14435 -310.23505 -795.65678 -115.78889 -219.14219 -348.98060 831.66691 -87.76407
351.52392 -274.22654 282.67161 -134.26868 -941.66403 -891.84060 -253.20331 751.83289 -98.15984 -893.46609 -622.37708 526.63183 -810.83061 482.63369 870.00019 494.26316 339.94507 422.83002 -22.71524 -461.55988
807.74543 -171.23680 829.01535 616.17572 -330.93060 -801.99134 677.87662 970.00628 -299.83343 -252.65098 -117.54597 423.67353 -11.93983 -29.22518 -939.03231 -606.33867 -866.49867 -671.88715 -194.34491 -78.65042
-362.75786 -947.40340 -800.99957 -66.43405 557.29238 513.32198 -114.92122 833.93272 413.75355 -170.43395 971.88095 -953.34206 -785.11527 235.13782 588.35347 523.56329 872.84038 -590.46576 -771.96937 -318.04168
908.84870 925.97183 -752.71055 576.58652 925.29991 19.05340 699.24963 549.23210 901.24319 -37.94424 110.53277 455.08750 428.85030 933.00342 245.06518 341.91698 -896.75922 -474.37170 -732.83305 -239.59804
718.47644 -558.74884 356.80015 -168.33615 11.76197 -842.10897 -607.97819 -76.78120 80.76210 -743.41491 455.65106 877.64130 130.90345 -654.33519 -889.69452 449.31712 -481.99988 935.76814 750.24327 -911.09655
-31.32234 -83.88328 115.87942 661.62853 -280.43317 323.89525 291.12013 63.23922 -875.05957 957.91280 -294.37645 483.35221 453.06858 610.95686 -159.63862 -53.51189 484.39233 -446.48206 -664.96114 -818.72595
-654.30163 778.04681 -783.33859 327.04933 -437.14023 745.26387 -321.14416 395.68859 191.72013 132.48151 -584.75685 -940.93938 963.92245 325.95595 60.63696 836.42501 -33.83396 652.86786 156.85373 602.71705
-560.53772 -243.24427 -618.38593 -585.60577 -227.78072 747.57374 -649.22319 -770.06509 265.53978 340.76693 -246.73524 722.61503 44.14611 418.25197 -348.57836 77.34691 476.66416 -474.54131 -362.66048 4.51459
6.77760 -275.17429 -602.81684 -170.82548 469.77708 -584.84485 570.30779 -784.44221 -189.97962 -543.85393 -272.60566 182.04044 -688.71714 358.75562 -70.94884 615.63661 -293.40103 535.45983 -979.19116 -357.22695
-205.33414 -997.47915 -521.61614 -954.56285 866.41546 634.87321 -923.39081 -876.53355 -449.08708 -898.97555 -802.29155 -247.12313 -688.37753 -20.10245 -966.14490 533.10697 -39.51628 -471.04907 638.24532 -238.15943
-591.17567 -740.13055 -242.83374 -57.30600 -982.42185 43.00046 -370.96361 791.78886 802.40210 982.51533 880.29860 -381.99514 119.53454 769.43496 -706.44324 -587.85154 123.03701 -524.26755 888.57562 -600.51084
-661.22677 -106.59303 234.67845 270.82451 -501.54018 481.66922 -227.85690 603.51326 -443.73872 -480.39847 532.63086 -140.55254 751.71358 -154.78900 976.78076 192.49893 -577.58276 128.21156 -396.60599 929.19497
-402.86899 -312.03678 -828.02892 171.02310 860.78940 -837.08133 -550.66853 558.78637 660.16153 159.47378 380.33269 -24.99668 -344.43578 -308.34640 -801.39731 216.31500 -683.41025 -780.47045 -894.61639 174.41957
898.84243 -77.77427 -550.40819 669.01150 654.70701 788.59660 865.92003 -931.78320 630.23763 412.64592 607.33430 392.78478 120.68723 -202.11283 -763.93057 -619.63313 819.74835 122.35268 -217.97013 -503.75013
-176.22776 -561.51022 -371.78945 54.76688 756.48838 -472.41780 438.70499 -527.14997 704.78782 -866.76431 -39.92875 337.48025 379.46329 284.03181 -872.35522 -585.98339 85.64608 -97.04976 -108.28291 -276.27841
-16.45820 -794.78282 104.35102 18.78049 -949.33533 571.88971 -39.00511 -850.93817 -314.71986 -966.52573 -728.08827 485.74891 -314.83584 -655.28875 17.73619 8.64749 -763.67757 564.17044 -723.97901 620.32631
997.00620 -146.29999 -621.88425 -705.34809 274.14005 -715.47016 -540.56937 -7.36680 -837.99092 -401.32877 -653.38815 874.38168 -559.12781 -949.38616 847.00532 -106.34909 692.32065 373.26909 420.54242 -305.08655
-981.97557 -664.19591 -998.12575 659.78932 747.56790 277.88226 -761.64642 543.95925 961.88238 495.66925 -364.30595 230.45145 785.22424 702.98186 449.61131 542.41935 -921.15677 466.87113 -701.17459 -741.20885
-869.19377 443.05480 -649.66952 701.96326 343.38221 -160.33623 -47.42343 314.91488 -244.38675 -965.24434 992.42916 12.40956 -128.25654 477.57943 675.69995 -356.14819 62.58155 59.75327 367.29351 730.32998
173.03393 -558.05005 -178.17884 -68.06990 548.06348 -685.56747 -593.78647 -95.38781 -13.38977 -567.29669 -306.08986 747.70229 -39.19912 -388.66498 130.80946 -745.10741 -923.05524 527.48654 641.38367 143.87811
664.01233 -199.68793 812.24879 -629.06654 -474.14838 -988.36531 -319.16068 -449.51723 -961.95076 -340.66651 858.62750 978.04219 866.12987 41.54005 -698.79787 -633.39006 764.46364 142.39248 786.69586 -804.54530
-110.28140 995.37949 325.80829 -143.41158 -232.29750 -705.30506 -964.60980 -449.13640 754.96426 -418.50306 -872.80041 -815.26081 963.98806 427.55469 773.02806 235.04658 166.74683 -134.71952 91.36640 -324.51327
-915.61417 -927.04288 679.17319 -374.07886 882.41922 836.43229 393.92249 -881.08102 171.83451 103.57835 698.57019 430.17361 322.20954 -501.22329 -326.10446 -937.68419 431.35331 916.56834 -465.86990 -44.15851
-283.46791 425.87437 438.91128 255.20603 -944.30873 -453.32435 723.03524 534.86809 907.24347 121.69427 35.01677 51.81826 -642.65294 923.99677 -257.25925 991.80873 27.91360 462.94040 -83.22422 809.66739
194.85284 -176.82813 -879.35281 -626.37489 383.43491 317.13098 -205.10460 835.04037 -715.92053 934.33838 -819.50599 258.62509 691.36868 560.00513 -193.18093 -257.87354 461.17604 693.56709 353.37515 -452.57850
441.24325 -995.69821 -990.27855 -728.24165 -802.69546 672.07621 808.31865 -976.42298 867.57351 372.55460 586.57826 -773.53562 414.93950 945.25798 -675.18726 -951.40842 -398.39259 401.32212 705.47083 -353.66649
521.56408 -811.54310 -885.11042 -382.88609 -299.70357 801.93447 342.61181 -877.07752 -967.13003 -571.51145 86.00348 424.39796 -251.71557 878.19150 -443.62523 788.18496 349.51235 464.68185 -395.41641 -259.39663
-515.56035 568.04649 -299.48266 -161.13663 -265.59629 -216.90933 -844.52935 16.27301 -342.23657 639.63296 -611.10192 -951.09847 -354.88620 -479.04537 -535.34218 290.86396 404.94875 -188.52629 458.83094 -171.90916
191.88197 2.43126 224.83194 -859.94791 616.42057 100.07938 -796.86872 327.45391 -236.56110 -415.32480 -554.03660 -45.57990 266.30113 752.11649 -696.00334 548.36536 339.63663 898.72852 -202.39705 -39.43612
999.10924 995.63562 541.01843 834.90630 975.68937 363.08830 -300.48846 686.54826 -47.69493 273.62419 839.76512 -406.80289 -842.95184 867.70718 650.98623 -27.49437 -281.18469 19.76314 598.04680 496.29568
-932.92725 889.21697 196.69423 470.39791 421.68512 185.93326 462.34455 -585.11326 -289.79568 -94.20988 -160.74055 -706.94322 -581.00498 487.22884 -66.38139 893.93049 590.31279 -347.94511 -781.06629 412.46700
-43.38841 897.90064 -933.44367 -75.36136 211.55856 871.67502 712.64808 -857.80021 -892.50856 -683.38389 -489.58626 94.64691 367.03381 248.30764 -386.61325 -962.13774 -131.23747 -914.84347 408.85539 -15.09219
584.46145 92.03321 359.22669 -260.15056 -427.85627 871.04534 -682.75724 667.27735 554.35758 -935.04617 828.62857 391.07211 -316.45440 739.14820 896.94416 807.79762 -78.52235 -809.30959 389.37494 -783.25660
481.64275 -105.23371 330.29613 279.73115 -336.01752 603.86735 510.04204 123.60585 15.82332 -946.91729 -346.84686 -772.93342 -252.59469 947.39955 -202.64035 752.34854 -745.49826 -43.35591 966.08348 -116.07601
-942.82066 254.10481 164.12644 -96.29625 -660.98027 929.94182 -817.18640 422.07392 -279.46759 -287.11326 -350.73582 -286.79745 827.35369 -356.37143 -79.44207 -622.64345 912.36799 -438.71271 663.87949 6.84573
-983.21621 733.27526 54.27417 957.71876 87.49770 -151.62108 11.70120 -861.28402 -168.05125 322.21313 -496.70255 -692.21954 -596.12099 -967.53524 -58.18836 -394.29708 -644.88719 -77.06592 139.30959 -151.61287
-268.66493 693.92202 -644.99863 -569.18341 -888.24151 -126.36582 143.84173 -557.30968 206.81433 68.43213 -757.29941 373.91096 -510.38586 605.32125 408.11712 -506.53117 -603.73337 -372.84127 -534.77494 776.43455
9.89422 -681.79908 -146.22372 304.37801 813.41055 -146.17964 -80.16778 705.25736 554.22411 204.68557 -926.45518 157.71986 -558.23168 148.83882 573.72031 279.88362 948.95329 644.83417 -204.78337 -176.61098
346.70058 -373.35620 -969.85006 549.70755 720.46592 -833.84584 814.25360 235.06412 -969.11396 770.24472 136.34239 -911.43931 784.22582 343.61417 -27.29411 339.10811 776.72296 -648.41237 -623.18063 890.11787
606.61842 418.14459 -975.96658 585.35778 -938.43918 -481.74988 654.51207 -682.90383 -303.39631 253.50638 -970.77942 580.15929 440.04332 -88.15979 -469.55596 -894.71883 479.13860 -557.13760 793.92871 -924.35698
65.50774 441.84070 953.20649 -842.64795 -393.42841 421.97323 73.60683 113.77208 -219.00883 -33.67720 649.59617 -657.82892 417.61453 797.13117 -192.74158 -237.10468 199.19053 -833.01999 -987.08783 -529.60487
-242.90410 -914.54355 294.68103 714.56014 239.63520 985.26591 330.92422 -724.41281 -238.98938 593.89056 122.26108 813.25905 804.83735 -361.67279 696.17997 972.91552 115.52326 -269.30566 -279.61408 -593.73922
-849.28477 -672.97338 591.30596 -518.68728 405.44063 74.95285 912.47053 -20.62345 894.17612 -299.57274 -166.83894 695.06572 -216.96810 -271.85395 -13.66442 -939.83027 368.25844 -40.17667 645.96534 -71.09001
-996.38471 -832.56092 629.63099 91.10696 567.53673 -379.79745 -854.69613 -623.26850 -43.46911 -348.35397 204.36728 314.06817 484.57230 -553.79458 -684.98094 -487.49988 -343.31674 126.79780 -774.30967 22.61402
-389.40601 -755.55996 271.21161 -30.77322 -102.86363 799.35167 708.13472 -861.53622 146.12421 -697.75685 -390.48291 -444.26580 -519.97418 837.31236 -494.01865 -801.34494 416.27596 -868.10810 68.76258 -40.00929
499.01350 -322.84675 -388.22373 739.59369 633.06266 511.45311 328.32235 -474.44531 -509.00964 906.48688 633.92236 666.61857 -786.49518 -834.20471 -894.77038 928.36140 -524.30325 -152.93916 569.95621 -905.23871
92.30955 -896.35645 -123.30485 -448.93521 929.50410 -61.72877 -569.06826 -253.09919 795.49850 5.14751 -600.43875 769.72850 -355.59809 -666.66997 -973.83366 142.33702 560.46923 479.09615 919.52242 -664.73165
943.99909 -824.08887 989.78759 -644.18202 -653.63669 121.04000 -409.50491 -970.29119 -740.82722 -267.40086 -209.76589 646.47386 338.14195 -900.79940 564.16951 -758.17207 -774.27392 -749.39009 -633.81956 -375.27650
-292.04077 340.00891 399.75506 -291.14121 -136.94584 -152.13720 -939.51773 732.27661 -763.35054 271.77701 -506.65891 392.40794 -208.73453 -115.07138 -476.67519 732.38395 750.47648 263.87372 -591.02787 214.04387
-842.32408 124.46308 280.57747 -706.31908 311.36039 861.60002 31.97475 -551.80232 353.10127 563.48905 -292.93245 -305.18084 -463.23603 942.80717 885.73248 -176.29352 418.06488 -565.78944 502.42831 382.18290
48.57062 -87.05014 673.29291 -652.41896 904.98353 -532.05373 114.15941 -311.92400 -265.36452 704.31158 -50.52614 -874.28195 -980.13105 255.25944 -745.73338 -809.33581 -580.73543 -827.41398 -888.10273 930.96922
-602.96445 741.64751 737.72936 233.13346 979.33787 664.69949 -875.12156 -447.40829 398.28348 -63.03966 831.75950 513.33198 -877.52482 399.15931 787.64208 -0.08746 948.41656 921.33890 533.16707 -491.46642
408.43038 -13.54205 910.33703 -908.71298 251.25345 753.07686 725.75035 -657.32095 -82.91518 671.54826 632.71676 -440.05340 -842.36324 -657.84443 939.72535 492.96461 5.25159 -548.58279 150.97241 859.45946
485.54916 760.90257 -365.86307 -259.27903 869.12057 963.61286 -873.54970 -658.76704 777.88778 484.14194 -562.98532 4.73310 -565.61124 253.69718 -661.16244 581.32082 -102.83766 914.56707 873.34714 228.69480
-497.75667 924.51505 92.01151 -842.40641 793.48647 -567.92789 787.83064 788.60240 743.65279 -773.54499 348.90257 828.88182 -206.12856 624.83054 522.10388 -732.85313 -962.70015 630.27071 -596.44606 -114.61673
-624.62558 -245.10476 6.63729 -973.93062 -908.26236 911.25607 -703.48743 -949.97791 151.78697 96.05482 -844.51269 -731.97013 520.44462 293.43802 245.99981 256.34470 -221.59496 414.10696 307.60537 834.98024
553.75565 826.68967 768.61925 587.49932 785.42061 620.68038 348.66380 411.08914 921.78295 90.91492 -493.09248 -472.54383 -598.17524 242.43067 367.52653 -747.88092 -276.31668 -430.80397 111.84278 852.54959
569.99413 -747.42245 269.54133 490.76706 -300.18871 160.79747 -697.48785 -70.84184 -415.42766 -480.97813 578.75937 -262.38398 -93.26151 6.13276 -807.30369 -388.32811 -793.06166 520.12434 -93.76367 -205.84969
-625.01878 568.68708 320.53597 18.29002 -131.15018 -249.25100 -414.12061 965.79786 -281.19137 -341.81930 591.51763 981.86955 -688.56023 -300.01056 -726.10489 -788.65328 -841.65760 632.21213 193.58024 -464.12467
38.78220 -696.36943 858.23829 -622.84136 -673.82909 484.08190 -768.05960 893.38120 258.56669 295.99361 -977.19797 223.06233 -710.91634 -493.87479 392.25670 -795.15054 620.13517 -311.57671 -884.46770 -753.77243
821.50101 -334.99440 137.18180 -58.32726 -697.48144 404.49594 -410.22614 -950.05465 -257.68564 -534.53985 -322.94340 -556.88635 -410.51146 799.82652 269.84169 961.32940 299.99804 365.93794 -283.67559 -284.39672
675.34038 -611.65053 -451.39703 -184.74075 165.67486 -287.05653 987.13569 -563.54676 297.45184 -965.32736 181.68931 384.56825 915.68132 -624.80153 233.79215 684.15462 181.70592 644.87352 305.64401 6.93583
242.89458 -199.49711 90.03578 132.02989 933.77112 -955.08185 786.90316 -359.47569 481.92716 -469.66799 459.47320 -173.32588 128.37679 -566.39593 757.10164 523.97849 -399.16481 57.16158 -452.88049 -290.65618
-89.00299 722.61547 -47.02620 976.47008 -744.74438 -809.54367 251.55630 775.89330 616.10092 -461.50698 620.31395 -337.39880 -313.35740 -330.68601 195.72773 -597.20135 -598.18420 -816.94863 -590.46386 630.05971
320.40985 452.33649 -348.50925 307.46348 -431.84859 978.98127 780.44828 -362.82818 806.10736 391.59584 635.32007 741.27692 327.13548 -56.39957 663.50937 -781.05982 130.14706 714.54104 -216.37006 -986.31460
559.95694 -49.74538 -633.14257 114.19841 136.66539 923.53080 907.99727 -220.53781 -393.50632 546.52617 459.34300 670.55313 -523.55401 -742.38234 760.89096 216.32632 -884.83609 -601.08503 -972.01684 906.81762
474.73366 71.72960 351.90883 212.97687 54.14026 191.84149 683.61730 -223.91840 910.43431 295.40830 209.29022 826.15634 -739.97228 -508.08669 313.37827 -637.91830 -356.55050 -746.56216 400.27922 289.57348
-957.57912 617.83872 401.52704 -38.02370 361.29746 790.47899 672.75658 482.30256 -866.04679 -929.63370 729.33192 -461.44043 -825.93189 145.70349 532.29457 504.97331 268.41418 970.37211 742.29348 -568.51719
342.50671 414.40729 -92.79599 -539.14380 649.70270 310.92079 855.42026 -590.15644 521.31727 -499.88491 630.73786 -204.20457 -513.89371 -929.03296 -281.25896 535.11085 -152.92693 -904.03255 -289.27535 593.58516
457.33957 829.86031 -468.36736 173.71111 851.28170 -637.79537 -430.99152 127.92777 271.43633 -273.90136 534.58362 -555.25646 706.71562 933.08975 801.74537 990.19311 -349.55971 -559.43785 -837.46779 575.67952
-483.73780 -281.13107 -639.23641 658.19732 -565.48791 -340.18333 -106.21022 651.71479 -888.99572 -682.54901 -925.49129 682.30604 799.80617 219.79896 -420.90531 -229.86872 -99.58163 -695.39375 379.28603 56.99016